digraph Tree {
node [shape=box] ;
0 [label="X[2] <= 2.45\ngini = 0.667\nsamples = 150\nvalue = [50, 50, 50]\nclass = Rock"] ;
1 [label="gini = 0.0\nsamples = 50\nvalue = [50, 0, 0]\nclass = Rock"] ;
0 -> 1 [labeldistance=2.5, labelangle=45, headlabel="True"] ;
2 [label="X[3] <= 1.75\ngini = 0.5\nsamples = 100\nvalue = [0, 50, 50]\nclass = Metal"] ;
0 -> 2 [labeldistance=2.5, labelangle=-45, headlabel="False"] ;
3 [label="X[2] <= 4.95\ngini = 0.168\nsamples = 54\nvalue = [0, 49, 5]\nclass = Metal"] ;
2 -> 3 ;
4 [label="X[3] <= 1.65\ngini = 0.041\nsamples = 48\nvalue = [0, 47, 1]\nclass = Metal"] ;
3 -> 4 ;
5 [label="gini = 0.0\nsamples = 47\nvalue = [0, 47, 0]\nclass = Metal"] ;
4 -> 5 ;
